<?xml version="1.0"?>
<opencv_storage>
<cascade>
  <stageType>BOOST</stageType>
  <featureType>HAAR</featureType>
  <height>24</height>
  <width>24</width>
  <stageParams>
    <boostType>GAB</boostType>
    <minHitRate>9.9500000476837158e-01</minHitRate>
    <maxFalseAlarm>5.0000000000000000e-01</maxFalseAlarm>
    <weightTrimRate>9.4999999999999996e-01</weightTrimRate>
    <maxDepth>1</maxDepth>
    <maxWeakCount>100</maxWeakCount></stageParams>
  <featureParams>
    <maxCatCount>0</maxCatCount>
    <featSize>1</featSize>
    <mode>BASIC</mode></featureParams>
  <stageNum>12</stageNum>
  <stages>
    <!-- stage 0 -->
    <_>
      <maxWeakCount>2</maxWeakCount>
      <stageThreshold>-1.4235001802444458e-01</stageThreshold>
      <weakClassifiers>
        <_>
          <internalNodes>
            0 -1 3 5.7590347528457642e-01</internalNodes>
          <leafValues>
            -9.8404783010482788e-01 9.6632999181747437e-01</leafValues></_>
        <_>
          <internalNodes>
            0 -1 11 5.6523077189922333e-02</internalNodes>
          <leafValues>
            -9.8987406492233276e-01 8.4169781208038330e-01</leafValues></_></weakClassifiers></_>
    <!-- stage 1 -->
    <_>
      <maxWeakCount>3</maxWeakCount>
      <stageThreshold>-1.3711667060852051e+00</stageThreshold>
      <weakClassifiers>
        <_>
          <internalNodes>
            0 -1 15 8.9426934719085693e-02</internalNodes>
          <leafValues>
            -9.4588971138000488e-01 6.1651915311813354e-01</leafValues></_>
        <_>
          <internalNodes>
            0 -1 45 -8.8247090578079224e-02</internalNodes>
          <leafValues>
            6.1343550682067871e-01 -9.3399089574813843e-01</leafValues></_>
        <_>
          <internalNodes>
            0 -1 9 2.1293567121028900e-01</internalNodes>
          <leafValues>
            -8.7323474884033203e-01 5.0871390104293823e-01</leafValues></_></weakClassifiers></_>
    <!-- stage 2 -->
    <_>
      <maxWeakCount>2</maxWeakCount>
      <stageThreshold>-5.1185005903244019e-01</stageThreshold>
      <weakClassifiers>
        <_>
          <internalNodes>
            0 -1 40 9.5685064792633057e-02</internalNodes>
          <leafValues>
            -9.7963798046112061e-01 3.9903846383094788e-01</leafValues></_>
        <_>
          <internalNodes>
            0 -1 20 -2.6515722274780273e-03</internalNodes>
          <leafValues>
            4.8515114188194275e-01 -9.1088849306106567e-01</leafValues></_></weakClassifiers></_>
    <!-- stage 3 -->
    <_>
      <maxWeakCount>3</maxWeakCount>
      <stageThreshold>-1.2456479072570801e+00</stageThreshold>
      <weakClassifiers>
        <_>
          <internalNodes>
            0 -1 7 2.0555067062377930e-01</internalNodes>
          <leafValues>
            -8.8764047622680664e-01 2.1951219439506531e-01</leafValues></_>
        <_>
          <internalNodes>
            0 -1 6 6.6728943586349487e-01</internalNodes>
          <leafValues>
            -8.1251180171966553e-01 4.6378931403160095e-01</leafValues></_>
        <_>
          <internalNodes>
            0 -1 4 2.1285558119416237e-02</internalNodes>
          <leafValues>
            -9.6496599912643433e-01 4.5450434088706970e-01</leafValues></_></weakClassifiers></_>
    <!-- stage 4 -->
    <_>
      <maxWeakCount>3</maxWeakCount>
      <stageThreshold>-1.2488594055175781e+00</stageThreshold>
      <weakClassifiers>
        <_>
          <internalNodes>
            0 -1 44 -9.9086865782737732e-02</internalNodes>
          <leafValues>
            3.6363637447357178e-01 -9.3362832069396973e-01</leafValues></_>
        <_>
          <internalNodes>
            0 -1 27 -4.4495835900306702e-03</internalNodes>
          <leafValues>
            4.3450969457626343e-01 -7.7770835161209106e-01</leafValues></_>
        <_>
          <internalNodes>
            0 -1 36 4.9611083231866360e-03</internalNodes>
          <leafValues>
            -7.3083889484405518e-01 4.6247720718383789e-01</leafValues></_></weakClassifiers></_>
    <!-- stage 5 -->
    <_>
      <maxWeakCount>4</maxWeakCount>
      <stageThreshold>-1.0821608304977417e+00</stageThreshold>
      <weakClassifiers>
        <_>
          <internalNodes>
            0 -1 17 1.9864132627844810e-03</internalNodes>
          <leafValues>
            -8.4251970052719116e-01 1.1922141164541245e-01</leafValues></_>
        <_>
          <internalNodes>
            0 -1 38 4.7691151499748230e-02</internalNodes>
          <leafValues>
            -8.5039961338043213e-01 3.4087631106376648e-01</leafValues></_>
        <_>
          <internalNodes>
            0 -1 43 5.8968417579308152e-04</internalNodes>
          <leafValues>
            -6.8635088205337524e-01 5.1486730575561523e-01</leafValues></_>
        <_>
          <internalNodes>
            0 -1 14 1.5233026444911957e-01</internalNodes>
          <leafValues>
            -8.5590767860412598e-01 4.2427167296409607e-01</leafValues></_></weakClassifiers></_>
    <!-- stage 6 -->
    <_>
      <maxWeakCount>4</maxWeakCount>
      <stageThreshold>-1.2031664848327637e+00</stageThreshold>
      <weakClassifiers>
        <_>
          <internalNodes>
            0 -1 28 -1.4053457416594028e-03</internalNodes>
          <leafValues>
            1.0045661777257919e-01 -8.6310905218124390e-01</leafValues></_>
        <_>
          <internalNodes>
            0 -1 37 1.3736424967646599e-02</internalNodes>
          <leafValues>
            -9.2622375488281250e-01 2.0206277072429657e-01</leafValues></_>
        <_>
          <internalNodes>
            0 -1 39 -2.1026766626164317e-04</internalNodes>
          <leafValues>
            3.7783715128898621e-01 -7.2455841302871704e-01</leafValues></_>
        <_>
          <internalNodes>
            0 -1 34 3.9664298295974731e-02</internalNodes>
          <leafValues>
            -9.1995733976364136e-01 3.9305225014686584e-01</leafValues></_></weakClassifiers></_>
    <!-- stage 7 -->
    <_>
      <maxWeakCount>4</maxWeakCount>
      <stageThreshold>-9.5958209037780762e-01</stageThreshold>
      <weakClassifiers>
        <_>
          <internalNodes>
            0 -1 33 -3.7467261427082121e-04</internalNodes>
          <leafValues>
            1.4004914462566376e-01 -8.4770435094833374e-01</leafValues></_>
        <_>
          <internalNodes>
            0 -1 5 3.4587317705154419e-01</internalNodes>
          <leafValues>
            -8.4422725439071655e-01 2.5352916121482849e-01</leafValues></_>
        <_>
          <internalNodes>
            0 -1 13 -2.5181554257869720e-02</internalNodes>
          <leafValues>
            4.6918973326683044e-01 -5.8922833204269409e-01</leafValues></_>
        <_>
          <internalNodes>
            0 -1 42 -2.5517097674310207e-04</internalNodes>
          <leafValues>
            3.8948187232017517e-01 -7.2459369897842407e-01</leafValues></_></weakClassifiers></_>
    <!-- stage 8 -->
    <_>
      <maxWeakCount>5</maxWeakCount>
      <stageThreshold>-1.6706286668777466e+00</stageThreshold>
      <weakClassifiers>
        <_>
          <internalNodes>
            0 -1 19 3.3811002969741821e-02</internalNodes>
          <leafValues>
            -8.5185188055038452e-01 2.8077753260731697e-02</leafValues></_>
        <_>
          <internalNodes>
            0 -1 49 5.5215077009052038e-04</internalNodes>
          <leafValues>
            -6.2407273054122925e-01 3.9435449242591858e-01</leafValues></_>
        <_>
          <internalNodes>
            0 -1 24 -2.6360894553363323e-03</internalNodes>
          <leafValues>
            2.5197967886924744e-01 -9.4805902242660522e-01</leafValues></_>
        <_>
          <internalNodes>
            0 -1 32 9.0273923706263304e-04</internalNodes>
          <leafValues>
            -7.9406243562698364e-01 2.7990970015525818e-01</leafValues></_>
        <_>
          <internalNodes>
            0 -1 30 -2.9783853096887469e-04</internalNodes>
          <leafValues>
            3.4737873077392578e-01 -6.3389080762863159e-01</leafValues></_></weakClassifiers></_>
    <!-- stage 9 -->
    <_>
      <maxWeakCount>7</maxWeakCount>
      <stageThreshold>-1.5529026985168457e+00</stageThreshold>
      <weakClassifiers>
        <_>
          <internalNodes>
            0 -1 25 3.1648256117478013e-04</internalNodes>
          <leafValues>
            -8.0131006240844727e-01 8.8541664183139801e-02</leafValues></_>
        <_>
          <internalNodes>
            0 -1 10 1.3835145533084869e-01</internalNodes>
          <leafValues>
            -5.3727024793624878e-01 4.1470858454704285e-01</leafValues></_>
        <_>
          <internalNodes>
            0 -1 26 1.8668410484679043e-04</internalNodes>
          <leafValues>
            -7.2460597753524780e-01 3.0439439415931702e-01</leafValues></_>
        <_>
          <internalNodes>
            0 -1 51 7.6590441167354584e-03</internalNodes>
          <leafValues>
            -3.6748284101486206e-01 5.9619998931884766e-01</leafValues></_>
        <_>
          <internalNodes>
            0 -1 47 -4.2570816003717482e-04</internalNodes>
          <leafValues>
            4.8640191555023193e-01 -5.2664214372634888e-01</leafValues></_>
        <_>
          <internalNodes>
            0 -1 0 1.3884742656955495e-05</internalNodes>
          <leafValues>
            2.2401894629001617e-01 -9.5715767145156860e-01</leafValues></_>
        <_>
          <internalNodes>
            0 -1 16 1.5012896619737148e-03</internalNodes>
          <leafValues>
            -6.8862986564636230e-01 2.1670678257942200e-01</leafValues></_></weakClassifiers></_>
    <!-- stage 10 -->
    <_>
      <maxWeakCount>8</maxWeakCount>
      <stageThreshold>-1.8673335313796997e+00</stageThreshold>
      <weakClassifiers>
        <_>
          <internalNodes>
            0 -1 41 2.2026497754268348e-04</internalNodes>
          <leafValues>
            -7.5535166263580322e-01 1.2852664291858673e-01</leafValues></_>
        <_>
          <internalNodes>
            0 -1 48 -2.8385064797475934e-04</internalNodes>
          <leafValues>
            3.1645587086677551e-01 -6.3972967863082886e-01</leafValues></_>
        <_>
          <internalNodes>
            0 -1 21 6.7993309348821640e-03</internalNodes>
          <leafValues>
            -6.3756793737411499e-01 3.7070691585540771e-01</leafValues></_>
        <_>
          <internalNodes>
            0 -1 8 2.6057323813438416e-01</internalNodes>
          <leafValues>
            -6.6102612018585205e-01 3.2953321933746338e-01</leafValues></_>
        <_>
          <internalNodes>
            0 -1 31 5.7056970894336700e-02</internalNodes>
          <leafValues>
            -5.5956327915191650e-01 4.0542912483215332e-01</leafValues></_>
        <_>
          <internalNodes>
            0 -1 35 3.7602294469252229e-04</internalNodes>
          <leafValues>
            -3.6393260955810547e-01 5.7763451337814331e-01</leafValues></_>
        <_>
          <internalNodes>
            0 -1 46 -4.1830137372016907e-02</internalNodes>
          <leafValues>
            3.9787328243255615e-01 -5.5139887332916260e-01</leafValues></_>
        <_>
          <internalNodes>
            0 -1 12 -1.6521159559488297e-03</internalNodes>
          <leafValues>
            3.3677631616592407e-01 -6.7699402570724487e-01</leafValues></_></weakClassifiers></_>
    <!-- stage 11 -->
    <_>
      <maxWeakCount>7</maxWeakCount>
      <stageThreshold>-1.5103352069854736e+00</stageThreshold>
      <weakClassifiers>
        <_>
          <internalNodes>
            0 -1 23 -1.3208407908678055e-03</internalNodes>
          <leafValues>
            -1.1070780456066132e-01 -8.5313749313354492e-01</leafValues></_>
        <_>
          <internalNodes>
            0 -1 2 1.9900840520858765e-01</internalNodes>
          <leafValues>
            -6.5685349702835083e-01 2.8760704398155212e-01</leafValues></_>
        <_>
          <internalNodes>
            0 -1 18 2.4202284403145313e-03</internalNodes>
          <leafValues>
            -5.3995954990386963e-01 3.6848571896553040e-01</leafValues></_>
        <_>
          <internalNodes>
            0 -1 22 4.1551777394488454e-04</internalNodes>
          <leafValues>
            -3.6335641145706177e-01 5.4986798763275146e-01</leafValues></_>
        <_>
          <internalNodes>
            0 -1 29 9.6532069146633148e-02</internalNodes>
          <leafValues>
            -5.0674760341644287e-01 3.9938732981681824e-01</leafValues></_>
        <_>
          <internalNodes>
            0 -1 50 9.4726150855422020e-03</internalNodes>
          <leafValues>
            -6.5296137332916260e-01 3.3054426312446594e-01</leafValues></_>
        <_>
          <internalNodes>
            0 -1 1 1.2874420463049319e-05</internalNodes>
          <leafValues>
            2.4810045957565308e-01 -7.3497414588928223e-01</leafValues></_></weakClassifiers></_></stages>
  <features>
    <_>
      <rects>
        <_>
          0 0 3 2 -1.</_>
        <_>
          1 0 1 2 3.</_></rects>
      <tilted>0</tilted></_>
    <_>
      <rects>
        <_>
          0 0 1 9 -1.</_>
        <_>
          0 3 1 3 3.</_></rects>
      <tilted>0</tilted></_>
    <_>
      <rects>
        <_>
          0 0 8 18 -1.</_>
        <_>
          4 0 4 18 2.</_></rects>
      <tilted>0</tilted></_>
    <_>
      <rects>
        <_>
          0 0 24 23 -1.</_>
        <_>
          8 0 8 23 3.</_></rects>
      <tilted>0</tilted></_>
    <_>
      <rects>
        <_>
          0 0 14 4 -1.</_>
        <_>
          0 2 14 2 2.</_></rects>
      <tilted>0</tilted></_>
    <_>
      <rects>
        <_>
          0 1 24 10 -1.</_>
        <_>
          8 1 8 10 3.</_></rects>
      <tilted>0</tilted></_>
    <_>
      <rects>
        <_>
          0 1 24 20 -1.</_>
        <_>
          8 1 8 20 3.</_></rects>
      <tilted>0</tilted></_>
    <_>
      <rects>
        <_>
          0 2 8 18 -1.</_>
        <_>
          4 2 4 18 2.</_></rects>
      <tilted>0</tilted></_>
    <_>
      <rects>
        <_>
          0 2 10 19 -1.</_>
        <_>
          5 2 5 19 2.</_></rects>
      <tilted>0</tilted></_>
    <_>
      <rects>
        <_>
          0 2 24 6 -1.</_>
        <_>
          8 2 8 6 3.</_></rects>
      <tilted>0</tilted></_>
    <_>
      <rects>
        <_>
          0 3 6 16 -1.</_>
        <_>
          3 3 3 16 2.</_></rects>
      <tilted>0</tilted></_>
    <_>
      <rects>
        <_>
          0 5 6 14 -1.</_>
        <_>
          3 5 3 14 2.</_></rects>
      <tilted>0</tilted></_>
    <_>
      <rects>
        <_>
          0 11 3 12 -1.</_>
        <_>
          0 15 3 4 3.</_></rects>
      <tilted>0</tilted></_>
    <_>
      <rects>
        <_>
          0 14 6 10 -1.</_>
        <_>
          0 14 3 5 2.</_>
        <_>
          3 19 3 5 2.</_></rects>
      <tilted>0</tilted></_>
    <_>
      <rects>
        <_>
          1 1 8 21 -1.</_>
        <_>
          5 1 4 21 2.</_></rects>
      <tilted>0</tilted></_>
    <_>
      <rects>
        <_>
          2 0 21 6 -1.</_>
        <_>
          2 3 21 3 2.</_></rects>
      <tilted>0</tilted></_>
    <_>
      <rects>
        <_>
          2 2 5 2 -1.</_>
        <_>
          2 3 5 1 2.</_></rects>
      <tilted>0</tilted></_>
    <_>
      <rects>
        <_>
          2 16 1 8 -1.</_>
        <_>
          2 20 1 4 2.</_></rects>
      <tilted>0</tilted></_>
    <_>
      <rects>
        <_>
          2 18 4 6 -1.</_>
        <_>
          2 21 4 3 2.</_></rects>
      <tilted>0</tilted></_>
    <_>
      <rects>
        <_>
          4 9 20 9 -1.</_>
        <_>
          4 12 20 3 3.</_></rects>
      <tilted>0</tilted></_>
    <_>
      <rects>
        <_>
          4 13 2 6 -1.</_>
        <_>
          4 16 2 3 2.</_></rects>
      <tilted>0</tilted></_>
    <_>
      <rects>
        <_>
          5 9 18 4 -1.</_>
        <_>
          5 11 18 2 2.</_></rects>
      <tilted>0</tilted></_>
    <_>
      <rects>
        <_>
          5 12 7 2 -1.</_>
        <_>
          5 13 7 1 2.</_></rects>
      <tilted>0</tilted></_>
    <_>
      <rects>
        <_>
          6 6 8 4 -1.</_>
        <_>
          6 8 8 2 2.</_></rects>
      <tilted>0</tilted></_>
    <_>
      <rects>
        <_>
          6 9 2 14 -1.</_>
        <_>
          6 16 2 7 2.</_></rects>
      <tilted>0</tilted></_>
    <_>
      <rects>
        <_>
          6 10 1 4 -1.</_>
        <_>
          6 12 1 2 2.</_></rects>
      <tilted>0</tilted></_>
    <_>
      <rects>
        <_>
          7 3 4 1 -1.</_>
        <_>
          9 3 2 1 2.</_></rects>
      <tilted>0</tilted></_>
    <_>
      <rects>
        <_>
          7 5 11 9 -1.</_>
        <_>
          7 8 11 3 3.</_></rects>
      <tilted>0</tilted></_>
    <_>
      <rects>
        <_>
          8 6 6 4 -1.</_>
        <_>
          8 8 6 2 2.</_></rects>
      <tilted>0</tilted></_>
    <_>
      <rects>
        <_>
          9 11 15 9 -1.</_>
        <_>
          14 11 5 9 3.</_></rects>
      <tilted>0</tilted></_>
    <_>
      <rects>
        <_>
          9 21 3 2 -1.</_>
        <_>
          9 22 3 1 2.</_></rects>
      <tilted>0</tilted></_>
    <_>
      <rects>
        <_>
          10 0 11 6 -1.</_>
        <_>
          10 3 11 3 2.</_></rects>
      <tilted>0</tilted></_>
    <_>
      <rects>
        <_>
          11 2 3 6 -1.</_>
        <_>
          11 5 3 3 2.</_></rects>
      <tilted>0</tilted></_>
    <_>
      <rects>
        <_>
          11 5 1 6 -1.</_>
        <_>
          11 8 1 3 2.</_></rects>
      <tilted>0</tilted></_>
    <_>
      <rects>
        <_>
          12 6 12 8 -1.</_>
        <_>
          16 6 4 8 3.</_></rects>
      <tilted>0</tilted></_>
    <_>
      <rects>
        <_>
          12 11 2 4 -1.</_>
        <_>
          13 11 1 4 2.</_></rects>
      <tilted>0</tilted></_>
    <_>
      <rects>
        <_>
          12 20 12 4 -1.</_>
        <_>
          12 20 6 2 2.</_>
        <_>
          18 22 6 2 2.</_></rects>
      <tilted>0</tilted></_>
    <_>
      <rects>
        <_>
          14 0 9 4 -1.</_>
        <_>
          14 2 9 2 2.</_></rects>
      <tilted>0</tilted></_>
    <_>
      <rects>
        <_>
          14 2 9 18 -1.</_>
        <_>
          17 2 3 18 3.</_></rects>
      <tilted>0</tilted></_>
    <_>
      <rects>
        <_>
          14 20 1 4 -1.</_>
        <_>
          14 22 1 2 2.</_></rects>
      <tilted>0</tilted></_>
    <_>
      <rects>
        <_>
          15 0 6 24 -1.</_>
        <_>
          15 8 6 8 3.</_></rects>
      <tilted>0</tilted></_>
    <_>
      <rects>
        <_>
          15 15 2 2 -1.</_>
        <_>
          16 15 1 2 2.</_></rects>
      <tilted>0</tilted></_>
    <_>
      <rects>
        <_>
          16 3 2 3 -1.</_>
        <_>
          17 3 1 3 2.</_></rects>
      <tilted>0</tilted></_>
    <_>
      <rects>
        <_>
          16 9 2 4 -1.</_>
        <_>
          16 11 2 2 2.</_></rects>
      <tilted>0</tilted></_>
    <_>
      <rects>
        <_>
          18 2 6 17 -1.</_>
        <_>
          21 2 3 17 2.</_></rects>
      <tilted>0</tilted></_>
    <_>
      <rects>
        <_>
          18 3 6 16 -1.</_>
        <_>
          21 3 3 16 2.</_></rects>
      <tilted>0</tilted></_>
    <_>
      <rects>
        <_>
          18 6 6 6 -1.</_>
        <_>
          21 6 3 6 2.</_></rects>
      <tilted>0</tilted></_>
    <_>
      <rects>
        <_>
          19 17 3 2 -1.</_>
        <_>
          19 18 3 1 2.</_></rects>
      <tilted>0</tilted></_>
    <_>
      <rects>
        <_>
          20 14 4 2 -1.</_>
        <_>
          20 15 4 1 2.</_></rects>
      <tilted>0</tilted></_>
    <_>
      <rects>
        <_>
          20 20 2 4 -1.</_>
        <_>
          20 22 2 2 2.</_></rects>
      <tilted>0</tilted></_>
    <_>
      <rects>
        <_>
          21 0 1 14 -1.</_>
        <_>
          21 7 1 7 2.</_></rects>
      <tilted>0</tilted></_>
    <_>
      <rects>
        <_>
          23 14 1 10 -1.</_>
        <_>
          23 19 1 5 2.</_></rects>
      <tilted>0</tilted></_></features></cascade>
</opencv_storage>
