<?xml version="1.0"?>
<opencv_storage>
<stage9>
  <maxWeakCount>7</maxWeakCount>
  <stageThreshold>-1.5529026985168457e+00</stageThreshold>
  <weakClassifiers>
    <_>
      <internalNodes>
        0 -1 77328 3.1648256117478013e-04</internalNodes>
      <leafValues>
        -8.0131006240844727e-01 8.8541664183139801e-02</leafValues></_>
    <_>
      <internalNodes>
        0 -1 3327 1.3835145533084869e-01</internalNodes>
      <leafValues>
        -5.3727024793624878e-01 4.1470858454704285e-01</leafValues></_>
    <_>
      <internalNodes>
        0 -1 82950 1.8668410484679043e-04</internalNodes>
      <leafValues>
        -7.2460597753524780e-01 3.0439439415931702e-01</leafValues></_>
    <_>
      <internalNodes>
        0 -1 162303 7.6590441167354584e-03</internalNodes>
      <leafValues>
        -3.6748284101486206e-01 5.9619998931884766e-01</leafValues></_>
    <_>
      <internalNodes>
        0 -1 157434 -4.2570816003717482e-04</internalNodes>
      <leafValues>
        4.8640191555023193e-01 -5.2664214372634888e-01</leafValues></_>
    <_>
      <internalNodes>
        0 -1 7 1.3884742656955495e-05</internalNodes>
      <leafValues>
        2.2401894629001617e-01 -9.5715767145156860e-01</leafValues></_>
    <_>
      <internalNodes>
        0 -1 28032 1.5012896619737148e-03</internalNodes>
      <leafValues>
        -6.8862986564636230e-01 2.1670678257942200e-01</leafValues></_></weakClassifiers></stage9>
</opencv_storage>
