<?xml version="1.0"?>
<opencv_storage>
<stage10>
  <maxWeakCount>8</maxWeakCount>
  <stageThreshold>-1.8673335313796997e+00</stageThreshold>
  <weakClassifiers>
    <_>
      <internalNodes>
        0 -1 143358 2.2026497754268348e-04</internalNodes>
      <leafValues>
        -7.5535166263580322e-01 1.2852664291858673e-01</leafValues></_>
    <_>
      <internalNodes>
        0 -1 159421 -2.8385064797475934e-04</internalNodes>
      <leafValues>
        3.1645587086677551e-01 -6.3972967863082886e-01</leafValues></_>
    <_>
      <internalNodes>
        0 -1 67177 6.7993309348821640e-03</internalNodes>
      <leafValues>
        -6.3756793737411499e-01 3.7070691585540771e-01</leafValues></_>
    <_>
      <internalNodes>
        0 -1 2485 2.6057323813438416e-01</internalNodes>
      <leafValues>
        -6.6102612018585205e-01 3.2953321933746338e-01</leafValues></_>
    <_>
      <internalNodes>
        0 -1 107352 5.7056970894336700e-02</internalNodes>
      <leafValues>
        -5.5956327915191650e-01 4.0542912483215332e-01</leafValues></_>
    <_>
      <internalNodes>
        0 -1 126077 3.7602294469252229e-04</internalNodes>
      <leafValues>
        -3.6393260955810547e-01 5.7763451337814331e-01</leafValues></_>
    <_>
      <internalNodes>
        0 -1 153482 -4.1830137372016907e-02</internalNodes>
      <leafValues>
        3.9787328243255615e-01 -5.5139887332916260e-01</leafValues></_>
    <_>
      <internalNodes>
        0 -1 9538 -1.6521159559488297e-03</internalNodes>
      <leafValues>
        3.3677631616592407e-01 -6.7699402570724487e-01</leafValues></_></weakClassifiers></stage10>
</opencv_storage>
